<?xml version="1.0"?>
<opencv_storage>
<cascade>
  <stageType>BOOST</stageType>
  <featureType>HAAR</featureType>
  <height>15</height>
  <width>60</width>
  <stageParams>
    <boostType>GAB</boostType>
    <minHitRate>9.9500000476837158e-01</minHitRate>
    <maxFalseAlarm>5.0000000000000000e-01</maxFalseAlarm>
    <weightTrimRate>9.4999999999999996e-01</weightTrimRate>
    <maxDepth>1</maxDepth>
    <maxWeakCount>100</maxWeakCount></stageParams>
  <featureParams>
    <maxCatCount>0</maxCatCount>
    <featSize>1</featSize>
    <mode>BASIC</mode></featureParams>
  <stageNum>8</stageNum>
  <stages>
    <!-- stage 0 -->
    <_>
      <maxWeakCount>3</maxWeakCount>
      <stageThreshold>-1.1498320102691650e+00</stageThreshold>
      <weakClassifiers>
        <_>
          <internalNodes>
            0 -1 7 -2.5931492447853088e-02</internalNodes>
          <leafValues>
            -9.5159238576889038e-01 6.8372094631195068e-01</leafValues></_>
        <_>
          <internalNodes>
            0 -1 21 -1.5177519991993904e-02</internalNodes>
          <leafValues>
            7.2961175441741943e-01 -9.4518637657165527e-01</leafValues></_>
        <_>
          <internalNodes>
            0 -1 12 1.0067568160593510e-02</internalNodes>
          <leafValues>
            -8.8836658000946045e-01 7.4906802177429199e-01</leafValues></_></weakClassifiers></_>
    <!-- stage 1 -->
    <_>
      <maxWeakCount>2</maxWeakCount>
      <stageThreshold>-2.5956206023693085e-02</stageThreshold>
      <weakClassifiers>
        <_>
          <internalNodes>
            0 -1 16 -5.0943687558174133e-02</internalNodes>
          <leafValues>
            -9.9750000238418579e-01 9.9000000953674316e-01</leafValues></_>
        <_>
          <internalNodes>
            0 -1 11 -2.5270208716392517e-01</internalNodes>
          <leafValues>
            -1. 9.7154378890991211e-01</leafValues></_></weakClassifiers></_>
    <!-- stage 2 -->
    <_>
      <maxWeakCount>3</maxWeakCount>
      <stageThreshold>-1.2913365364074707e+00</stageThreshold>
      <weakClassifiers>
        <_>
          <internalNodes>
            0 -1 3 2.1643727086484432e-03</internalNodes>
          <leafValues>
            -9.7698211669921875e-01 7.5229358673095703e-01</leafValues></_>
        <_>
          <internalNodes>
            0 -1 6 -5.0579316914081573e-02</internalNodes>
          <leafValues>
            6.8580222129821777e-01 -9.2753475904464722e-01</leafValues></_>
        <_>
          <internalNodes>
            0 -1 1 1.0307740420103073e-02</internalNodes>
          <leafValues>
            -9.6850210428237915e-01 6.1318033933639526e-01</leafValues></_></weakClassifiers></_>
    <!-- stage 3 -->
    <_>
      <maxWeakCount>3</maxWeakCount>
      <stageThreshold>-1.2993489503860474e+00</stageThreshold>
      <weakClassifiers>
        <_>
          <internalNodes>
            0 -1 15 -5.1492592319846153e-03</internalNodes>
          <leafValues>
            5.8415842056274414e-01 -8.9974939823150635e-01</leafValues></_>
        <_>
          <internalNodes>
            0 -1 10 -2.9365348163992167e-03</internalNodes>
          <leafValues>
            6.1807113885879517e-01 -9.0931719541549683e-01</leafValues></_>
        <_>
          <internalNodes>
            0 -1 20 -3.9183190092444420e-03</internalNodes>
          <leafValues>
            5.0971758365631104e-01 -9.7426426410675049e-01</leafValues></_></weakClassifiers></_>
    <!-- stage 4 -->
    <_>
      <maxWeakCount>3</maxWeakCount>
      <stageThreshold>-1.0854033231735229e+00</stageThreshold>
      <weakClassifiers>
        <_>
          <internalNodes>
            0 -1 17 -5.3226989693939686e-03</internalNodes>
          <leafValues>
            6.2285715341567993e-01 -8.5939395427703857e-01</leafValues></_>
        <_>
          <internalNodes>
            0 -1 2 9.8149701952934265e-03</internalNodes>
          <leafValues>
            -8.2413595914840698e-01 5.9596776962280273e-01</leafValues></_>
        <_>
          <internalNodes>
            0 -1 13 6.3858404755592346e-03</internalNodes>
          <leafValues>
            -8.2197713851928711e-01 6.3223099708557129e-01</leafValues></_></weakClassifiers></_>
    <!-- stage 5 -->
    <_>
      <maxWeakCount>3</maxWeakCount>
      <stageThreshold>-1.4868792295455933e+00</stageThreshold>
      <weakClassifiers>
        <_>
          <internalNodes>
            0 -1 19 -9.6165157854557037e-02</internalNodes>
          <leafValues>
            4.3426296114921570e-01 -9.4659548997879028e-01</leafValues></_>
        <_>
          <internalNodes>
            0 -1 18 -1.8615827430039644e-03</internalNodes>
          <leafValues>
            2.8465393185615540e-01 -9.2669850587844849e-01</leafValues></_>
        <_>
          <internalNodes>
            0 -1 4 -4.0027135983109474e-03</internalNodes>
          <leafValues>
            -8.9503473043441772e-01 3.8641473650932312e-01</leafValues></_></weakClassifiers></_>
    <!-- stage 6 -->
    <_>
      <maxWeakCount>3</maxWeakCount>
      <stageThreshold>-1.3234134912490845e+00</stageThreshold>
      <weakClassifiers>
        <_>
          <internalNodes>
            0 -1 0 -4.5027637481689453e-01</internalNodes>
          <leafValues>
            6.0550457239151001e-01 -9.3606138229370117e-01</leafValues></_>
        <_>
          <internalNodes>
            0 -1 5 -9.6337273716926575e-02</internalNodes>
          <leafValues>
            4.0202540159225464e-01 -8.7596637010574341e-01</leafValues></_>
        <_>
          <internalNodes>
            0 -1 22 -1.1924585327506065e-02</internalNodes>
          <leafValues>
            4.8861435055732727e-01 -7.7796334028244019e-01</leafValues></_></weakClassifiers></_>
    <!-- stage 7 -->
    <_>
      <maxWeakCount>3</maxWeakCount>
      <stageThreshold>-1.2340612411499023e+00</stageThreshold>
      <weakClassifiers>
        <_>
          <internalNodes>
            0 -1 8 -3.6693383008241653e-02</internalNodes>
          <leafValues>
            7.0629370212554932e-01 -8.1796967983245850e-01</leafValues></_>
        <_>
          <internalNodes>
            0 -1 14 -1.0898249223828316e-02</internalNodes>
          <leafValues>
            4.1739770770072937e-01 -9.0632522106170654e-01</leafValues></_>
        <_>
          <internalNodes>
            0 -1 9 3.9966171607375145e-03</internalNodes>
          <leafValues>
            -8.0997008085250854e-01 4.9023362994194031e-01</leafValues></_></weakClassifiers></_></stages>
  <features>
    <_>
      <rects>
        <_>
          1 1 59 14 -1.</_>
        <_>
          1 8 59 7 2.</_></rects>
      <tilted>0</tilted></_>
    <_>
      <rects>
        <_>
          2 2 6 10 -1.</_>
        <_>
          5 2 3 10 2.</_></rects>
      <tilted>0</tilted></_>
    <_>
      <rects>
        <_>
          2 3 4 7 -1.</_>
        <_>
          4 3 2 7 2.</_></rects>
      <tilted>0</tilted></_>
    <_>
      <rects>
        <_>
          2 8 4 3 -1.</_>
        <_>
          4 8 2 3 2.</_></rects>
      <tilted>0</tilted></_>
    <_>
      <rects>
        <_>
          2 9 2 3 -1.</_>
        <_>
          2 10 2 1 2.</_></rects>
      <tilted>0</tilted></_>
    <_>
      <rects>
        <_>
          4 8 45 6 -1.</_>
        <_>
          4 11 45 3 2.</_></rects>
      <tilted>0</tilted></_>
    <_>
      <rects>
        <_>
          5 9 49 4 -1.</_>
        <_>
          5 11 49 2 2.</_></rects>
      <tilted>0</tilted></_>
    <_>
      <rects>
        <_>
          12 13 45 1 -1.</_>
        <_>
          27 13 15 1 2.</_></rects>
      <tilted>0</tilted></_>
    <_>
      <rects>
        <_>
          15 5 18 1 -1.</_>
        <_>
          21 5 6 1 2.</_></rects>
      <tilted>0</tilted></_>
    <_>
      <rects>
        <_>
          17 9 6 6 -1.</_>
        <_>
          17 9 3 3 2.</_>
        <_>
          20 12 3 3 2.</_></rects>
      <tilted>0</tilted></_>
    <_>
      <rects>
        <_>
          19 7 4 3 -1.</_>
        <_>
          21 7 2 3 2.</_></rects>
      <tilted>0</tilted></_>
    <_>
      <rects>
        <_>
          22 0 17 12 -1.</_>
        <_>
          22 4 17 4 2.</_></rects>
      <tilted>0</tilted></_>
    <_>
      <rects>
        <_>
          22 1 6 8 -1.</_>
        <_>
          22 1 3 4 2.</_>
        <_>
          25 5 3 4 2.</_></rects>
      <tilted>0</tilted></_>
    <_>
      <rects>
        <_>
          23 1 6 6 -1.</_>
        <_>
          23 1 3 3 2.</_>
        <_>
          26 4 3 3 2.</_></rects>
      <tilted>0</tilted></_>
    <_>
      <rects>
        <_>
          28 9 22 6 -1.</_>
        <_>
          28 9 11 3 2.</_>
        <_>
          39 12 11 3 2.</_></rects>
      <tilted>0</tilted></_>
    <_>
      <rects>
        <_>
          32 3 6 4 -1.</_>
        <_>
          32 3 3 2 2.</_>
        <_>
          35 5 3 2 2.</_></rects>
      <tilted>0</tilted></_>
    <_>
      <rects>
        <_>
          33 0 3 15 -1.</_>
        <_>
          33 5 3 5 2.</_></rects>
      <tilted>0</tilted></_>
    <_>
      <rects>
        <_>
          35 4 4 6 -1.</_>
        <_>
          35 4 2 3 2.</_>
        <_>
          37 7 2 3 2.</_></rects>
      <tilted>0</tilted></_>
    <_>
      <rects>
        <_>
          40 10 2 4 -1.</_>
        <_>
          40 12 2 2 2.</_></rects>
      <tilted>0</tilted></_>
    <_>
      <rects>
        <_>
          41 1 12 14 -1.</_>
        <_>
          41 8 12 7 2.</_></rects>
      <tilted>0</tilted></_>
    <_>
      <rects>
        <_>
          51 8 8 2 -1.</_>
        <_>
          55 8 4 2 2.</_></rects>
      <tilted>0</tilted></_>
    <_>
      <rects>
        <_>
          52 2 6 8 -1.</_>
        <_>
          55 2 3 8 2.</_></rects>
      <tilted>0</tilted></_>
    <_>
      <rects>
        <_>
          54 2 4 13 -1.</_>
        <_>
          56 2 2 13 2.</_></rects>
      <tilted>0</tilted></_></features></cascade>
</opencv_storage>
