<?xml version="1.0"?>
<opencv_storage>
<cascade>
  <stageType>BOOST</stageType>
  <featureType>HAAR</featureType>
  <height>20</height>
  <width>60</width>
  <stageParams>
    <boostType>GAB</boostType>
    <minHitRate>9.9500000476837158e-01</minHitRate>
    <maxFalseAlarm>5.0000000000000000e-01</maxFalseAlarm>
    <weightTrimRate>9.4999999999999996e-01</weightTrimRate>
    <maxDepth>1</maxDepth>
    <maxWeakCount>100</maxWeakCount></stageParams>
  <featureParams>
    <maxCatCount>0</maxCatCount>
    <featSize>1</featSize>
    <mode>BASIC</mode></featureParams>
  <stageNum>10</stageNum>
  <stages>
    <!-- stage 0 -->
    <_>
      <maxWeakCount>3</maxWeakCount>
      <stageThreshold>-1.4925704002380371e+00</stageThreshold>
      <weakClassifiers>
        <_>
          <internalNodes>
            0 -1 27 -1.1052213609218597e-01</internalNodes>
          <leafValues>
            3.6190477013587952e-01 -9.2371135950088501e-01</leafValues></_>
        <_>
          <internalNodes>
            0 -1 12 -2.9745299834758043e-03</internalNodes>
          <leafValues>
            -9.5757091045379639e-01 5.0013780593872070e-01</leafValues></_>
        <_>
          <internalNodes>
            0 -1 14 -5.9802830219268799e-03</internalNodes>
          <leafValues>
            5.5538856983184814e-01 -8.9690423011779785e-01</leafValues></_></weakClassifiers></_>
    <!-- stage 1 -->
    <_>
      <maxWeakCount>3</maxWeakCount>
      <stageThreshold>-1.2010226249694824e+00</stageThreshold>
      <weakClassifiers>
        <_>
          <internalNodes>
            0 -1 18 -2.5132983922958374e-02</internalNodes>
          <leafValues>
            -8.9704477787017822e-01 9.2366409301757812e-01</leafValues></_>
        <_>
          <internalNodes>
            0 -1 29 -3.6510050296783447e-02</internalNodes>
          <leafValues>
            -9.4496291875839233e-01 4.9854454398155212e-01</leafValues></_>
        <_>
          <internalNodes>
            0 -1 21 -1.1812353506684303e-02</internalNodes>
          <leafValues>
            7.1143263578414917e-01 -8.0252242088317871e-01</leafValues></_></weakClassifiers></_>
    <!-- stage 2 -->
    <_>
      <maxWeakCount>3</maxWeakCount>
      <stageThreshold>-1.1673270463943481e+00</stageThreshold>
      <weakClassifiers>
        <_>
          <internalNodes>
            0 -1 3 -2.2295531630516052e-01</internalNodes>
          <leafValues>
            -8.3844012022018433e-01 8.0582523345947266e-01</leafValues></_>
        <_>
          <internalNodes>
            0 -1 34 -1.4988761395215988e-03</internalNodes>
          <leafValues>
            5.7989901304244995e-01 -8.3213096857070923e-01</leafValues></_>
        <_>
          <internalNodes>
            0 -1 7 -1.3121043145656586e-01</internalNodes>
          <leafValues>
            5.8672708272933960e-01 -9.0878593921661377e-01</leafValues></_></weakClassifiers></_>
    <!-- stage 3 -->
    <_>
      <maxWeakCount>4</maxWeakCount>
      <stageThreshold>-1.9516494274139404e+00</stageThreshold>
      <weakClassifiers>
        <_>
          <internalNodes>
            0 -1 2 1.7672773683443666e-03</internalNodes>
          <leafValues>
            -8.8246816396713257e-01 5.0943398475646973e-01</leafValues></_>
        <_>
          <internalNodes>
            0 -1 25 3.0090822838246822e-03</internalNodes>
          <leafValues>
            -8.2725954055786133e-01 4.8781320452690125e-01</leafValues></_>
        <_>
          <internalNodes>
            0 -1 15 6.0349451377987862e-03</internalNodes>
          <leafValues>
            -7.4330472946166992e-01 6.2696897983551025e-01</leafValues></_>
        <_>
          <internalNodes>
            0 -1 24 -1.6492786817252636e-03</internalNodes>
          <leafValues>
            5.0138306617736816e-01 -9.4670742750167847e-01</leafValues></_></weakClassifiers></_>
    <!-- stage 4 -->
    <_>
      <maxWeakCount>3</maxWeakCount>
      <stageThreshold>-1.0378582477569580e+00</stageThreshold>
      <weakClassifiers>
        <_>
          <internalNodes>
            0 -1 0 2.6896423660218716e-03</internalNodes>
          <leafValues>
            -8.7329435348510742e-01 4.9350649118423462e-01</leafValues></_>
        <_>
          <internalNodes>
            0 -1 31 -3.7236295174807310e-03</internalNodes>
          <leafValues>
            5.2366876602172852e-01 -8.0727219581604004e-01</leafValues></_>
        <_>
          <internalNodes>
            0 -1 22 -1.1162623995915055e-03</internalNodes>
          <leafValues>
            7.2207212448120117e-01 -6.8823271989822388e-01</leafValues></_></weakClassifiers></_>
    <!-- stage 5 -->
    <_>
      <maxWeakCount>4</maxWeakCount>
      <stageThreshold>-9.7789406776428223e-01</stageThreshold>
      <weakClassifiers>
        <_>
          <internalNodes>
            0 -1 19 5.9619662351906300e-03</internalNodes>
          <leafValues>
            -8.3365201950073242e-01 3.8805970549583435e-01</leafValues></_>
        <_>
          <internalNodes>
            0 -1 1 1.4179761055856943e-03</internalNodes>
          <leafValues>
            -7.7438205480575562e-01 3.7054646015167236e-01</leafValues></_>
        <_>
          <internalNodes>
            0 -1 16 -2.7401350438594818e-02</internalNodes>
          <leafValues>
            -8.6586314439773560e-01 3.5000461339950562e-01</leafValues></_>
        <_>
          <internalNodes>
            0 -1 10 -1.3285883469507098e-03</internalNodes>
          <leafValues>
            3.8034096360206604e-01 -8.6479318141937256e-01</leafValues></_></weakClassifiers></_>
    <!-- stage 6 -->
    <_>
      <maxWeakCount>3</maxWeakCount>
      <stageThreshold>-1.1937340497970581e+00</stageThreshold>
      <weakClassifiers>
        <_>
          <internalNodes>
            0 -1 5 -6.1924898624420166e-01</internalNodes>
          <leafValues>
            2.1839080750942230e-01 -8.5288268327713013e-01</leafValues></_>
        <_>
          <internalNodes>
            0 -1 26 8.5619725286960602e-03</internalNodes>
          <leafValues>
            -7.0575970411300659e-01 5.8361047506332397e-01</leafValues></_>
        <_>
          <internalNodes>
            0 -1 28 -5.2820585668087006e-02</internalNodes>
          <leafValues>
            3.6490836739540100e-01 -9.1881525516510010e-01</leafValues></_></weakClassifiers></_>
    <!-- stage 7 -->
    <_>
      <maxWeakCount>3</maxWeakCount>
      <stageThreshold>-1.2648818492889404e+00</stageThreshold>
      <weakClassifiers>
        <_>
          <internalNodes>
            0 -1 4 -4.6594560146331787e-01</internalNodes>
          <leafValues>
            4.3902438879013062e-01 -8.7795275449752808e-01</leafValues></_>
        <_>
          <internalNodes>
            0 -1 13 -2.5355692952871323e-02</internalNodes>
          <leafValues>
            4.8172122240066528e-01 -7.3395037651062012e-01</leafValues></_>
        <_>
          <internalNodes>
            0 -1 6 -1.6359347105026245e-01</internalNodes>
          <leafValues>
            4.7500148415565491e-01 -8.6865031719207764e-01</leafValues></_></weakClassifiers></_>
    <!-- stage 8 -->
    <_>
      <maxWeakCount>5</maxWeakCount>
      <stageThreshold>-1.7340430021286011e+00</stageThreshold>
      <weakClassifiers>
        <_>
          <internalNodes>
            0 -1 23 -6.5295752137899399e-03</internalNodes>
          <leafValues>
            1.8000000715255737e-01 -8.7346941232681274e-01</leafValues></_>
        <_>
          <internalNodes>
            0 -1 32 -6.9983219727873802e-03</internalNodes>
          <leafValues>
            2.2507265210151672e-01 -7.9906690120697021e-01</leafValues></_>
        <_>
          <internalNodes>
            0 -1 30 -1.9599363207817078e-02</internalNodes>
          <leafValues>
            3.1253790855407715e-01 -7.9956537485122681e-01</leafValues></_>
        <_>
          <internalNodes>
            0 -1 17 5.9294630773365498e-03</internalNodes>
          <leafValues>
            -5.9823089838027954e-01 4.5381730794906616e-01</leafValues></_>
        <_>
          <internalNodes>
            0 -1 8 -1.3288530753925443e-03</internalNodes>
          <leafValues>
            -1. 3.1214994192123413e-01</leafValues></_></weakClassifiers></_>
    <!-- stage 9 -->
    <_>
      <maxWeakCount>4</maxWeakCount>
      <stageThreshold>-1.0139342546463013e+00</stageThreshold>
      <weakClassifiers>
        <_>
          <internalNodes>
            0 -1 20 7.0405350998044014e-03</internalNodes>
          <leafValues>
            -8.3284741640090942e-01 2.4503311514854431e-01</leafValues></_>
        <_>
          <internalNodes>
            0 -1 11 -8.5127856582403183e-03</internalNodes>
          <leafValues>
            2.4477510154247284e-01 -7.5253283977508545e-01</leafValues></_>
        <_>
          <internalNodes>
            0 -1 33 -3.0997614376246929e-03</internalNodes>
          <leafValues>
            4.6147724986076355e-01 -5.9701550006866455e-01</leafValues></_>
        <_>
          <internalNodes>
            0 -1 9 3.2054088660515845e-04</internalNodes>
          <leafValues>
            3.1340178847312927e-01 -8.8733923435211182e-01</leafValues></_></weakClassifiers></_></stages>
  <features>
    <_>
      <rects>
        <_>
          0 1 2 9 -1.</_>
        <_>
          1 1 1 9 2.</_></rects>
      <tilted>0</tilted></_>
    <_>
      <rects>
        <_>
          0 1 2 17 -1.</_>
        <_>
          1 1 1 17 2.</_></rects>
      <tilted>0</tilted></_>
    <_>
      <rects>
        <_>
          0 2 2 6 -1.</_>
        <_>
          1 2 1 6 2.</_></rects>
      <tilted>0</tilted></_>
    <_>
      <rects>
        <_>
          0 14 60 6 -1.</_>
        <_>
          0 16 60 2 2.</_></rects>
      <tilted>0</tilted></_>
    <_>
      <rects>
        <_>
          2 0 43 18 -1.</_>
        <_>
          2 9 43 9 2.</_></rects>
      <tilted>0</tilted></_>
    <_>
      <rects>
        <_>
          2 2 57 18 -1.</_>
        <_>
          2 11 57 9 2.</_></rects>
      <tilted>0</tilted></_>
    <_>
      <rects>
        <_>
          3 0 19 20 -1.</_>
        <_>
          3 10 19 10 2.</_></rects>
      <tilted>0</tilted></_>
    <_>
      <rects>
        <_>
          6 0 14 20 -1.</_>
        <_>
          6 10 14 10 2.</_></rects>
      <tilted>0</tilted></_>
    <_>
      <rects>
        <_>
          10 4 6 10 -1.</_>
        <_>
          10 4 3 5 2.</_>
        <_>
          13 9 3 5 2.</_></rects>
      <tilted>0</tilted></_>
    <_>
      <rects>
        <_>
          12 4 2 10 -1.</_>
        <_>
          12 4 1 5 2.</_>
        <_>
          13 9 1 5 2.</_></rects>
      <tilted>0</tilted></_>
    <_>
      <rects>
        <_>
          12 9 12 1 -1.</_>
        <_>
          18 9 6 1 2.</_></rects>
      <tilted>0</tilted></_>
    <_>
      <rects>
        <_>
          14 9 5 6 -1.</_>
        <_>
          14 12 5 3 2.</_></rects>
      <tilted>0</tilted></_>
    <_>
      <rects>
        <_>
          14 19 3 1 -1.</_>
        <_>
          15 19 1 1 2.</_></rects>
      <tilted>0</tilted></_>
    <_>
      <rects>
        <_>
          15 0 8 11 -1.</_>
        <_>
          19 0 4 11 2.</_></rects>
      <tilted>0</tilted></_>
    <_>
      <rects>
        <_>
          15 6 8 5 -1.</_>
        <_>
          19 6 4 5 2.</_></rects>
      <tilted>0</tilted></_>
    <_>
      <rects>
        <_>
          18 1 10 6 -1.</_>
        <_>
          18 1 5 3 2.</_>
        <_>
          23 4 5 3 2.</_></rects>
      <tilted>0</tilted></_>
    <_>
      <rects>
        <_>
          19 8 12 2 -1.</_>
        <_>
          23 8 4 2 2.</_></rects>
      <tilted>0</tilted></_>
    <_>
      <rects>
        <_>
          20 0 10 6 -1.</_>
        <_>
          20 0 5 3 2.</_>
        <_>
          25 3 5 3 2.</_></rects>
      <tilted>0</tilted></_>
    <_>
      <rects>
        <_>
          20 15 18 2 -1.</_>
        <_>
          26 15 6 2 2.</_></rects>
      <tilted>0</tilted></_>
    <_>
      <rects>
        <_>
          22 1 4 6 -1.</_>
        <_>
          22 1 2 3 2.</_>
        <_>
          24 4 2 3 2.</_></rects>
      <tilted>0</tilted></_>
    <_>
      <rects>
        <_>
          22 1 6 4 -1.</_>
        <_>
          22 1 3 2 2.</_>
        <_>
          25 3 3 2 2.</_></rects>
      <tilted>0</tilted></_>
    <_>
      <rects>
        <_>
          25 1 20 4 -1.</_>
        <_>
          25 1 10 2 2.</_>
        <_>
          35 3 10 2 2.</_></rects>
      <tilted>0</tilted></_>
    <_>
      <rects>
        <_>
          30 1 6 2 -1.</_>
        <_>
          30 1 3 1 2.</_>
        <_>
          33 2 3 1 2.</_></rects>
      <tilted>0</tilted></_>
    <_>
      <rects>
        <_>
          31 1 8 4 -1.</_>
        <_>
          31 1 4 2 2.</_>
        <_>
          35 3 4 2 2.</_></rects>
      <tilted>0</tilted></_>
    <_>
      <rects>
        <_>
          32 8 5 4 -1.</_>
        <_>
          32 10 5 2 2.</_></rects>
      <tilted>0</tilted></_>
    <_>
      <rects>
        <_>
          34 2 8 2 -1.</_>
        <_>
          38 2 4 2 2.</_></rects>
      <tilted>0</tilted></_>
    <_>
      <rects>
        <_>
          38 7 6 7 -1.</_>
        <_>
          41 7 3 7 2.</_></rects>
      <tilted>0</tilted></_>
    <_>
      <rects>
        <_>
          40 4 14 16 -1.</_>
        <_>
          40 12 14 8 2.</_></rects>
      <tilted>0</tilted></_>
    <_>
      <rects>
        <_>
          43 0 7 20 -1.</_>
        <_>
          43 10 7 10 2.</_></rects>
      <tilted>0</tilted></_>
    <_>
      <rects>
        <_>
          44 17 10 3 -1.</_>
        <_>
          44 18 10 1 2.</_></rects>
      <tilted>0</tilted></_>
    <_>
      <rects>
        <_>
          52 6 5 12 -1.</_>
        <_>
          52 12 5 6 2.</_></rects>
      <tilted>0</tilted></_>
    <_>
      <rects>
        <_>
          56 0 4 8 -1.</_>
        <_>
          58 0 2 8 2.</_></rects>
      <tilted>0</tilted></_>
    <_>
      <rects>
        <_>
          56 0 4 17 -1.</_>
        <_>
          58 0 2 17 2.</_></rects>
      <tilted>0</tilted></_>
    <_>
      <rects>
        <_>
          58 0 2 18 -1.</_>
        <_>
          59 0 1 18 2.</_></rects>
      <tilted>0</tilted></_>
    <_>
      <rects>
        <_>
          58 2 2 17 -1.</_>
        <_>
          59 2 1 17 2.</_></rects>
      <tilted>0</tilted></_></features></cascade>
</opencv_storage>
